{
  "version": 1,
  "type": "standardized_logistic_regression",
  "task": "stage1b_shot_verifier",
  "featureExtractor": "logmel_summary",
  "sampleRate": 16000,
  "clipSamples": 8000,
  "threshold": 0.79,
  "features": [
    "logmel_total_mean",
    "logmel_total_std",
    "logmel_total_max",
    "logmel_total_peak_pos",
    "logmel_total_impact_delta",
    "logmel_total_tail_delta",
    "mel_00_mean",
    "mel_00_std",
    "mel_00_max",
    "mel_00_impact_delta",
    "mel_00_tail_delta",
    "mel_01_mean",
    "mel_01_std",
    "mel_01_max",
    "mel_01_impact_delta",
    "mel_01_tail_delta",
    "mel_02_mean",
    "mel_02_std",
    "mel_02_max",
    "mel_02_impact_delta",
    "mel_02_tail_delta",
    "mel_03_mean",
    "mel_03_std",
    "mel_03_max",
    "mel_03_impact_delta",
    "mel_03_tail_delta",
    "mel_04_mean",
    "mel_04_std",
    "mel_04_max",
    "mel_04_impact_delta",
    "mel_04_tail_delta",
    "mel_05_mean",
    "mel_05_std",
    "mel_05_max",
    "mel_05_impact_delta",
    "mel_05_tail_delta",
    "mel_06_mean",
    "mel_06_std",
    "mel_06_max",
    "mel_06_impact_delta",
    "mel_06_tail_delta",
    "mel_07_mean",
    "mel_07_std",
    "mel_07_max",
    "mel_07_impact_delta",
    "mel_07_tail_delta",
    "mel_08_mean",
    "mel_08_std",
    "mel_08_max",
    "mel_08_impact_delta",
    "mel_08_tail_delta",
    "mel_09_mean",
    "mel_09_std",
    "mel_09_max",
    "mel_09_impact_delta",
    "mel_09_tail_delta",
    "mel_10_mean",
    "mel_10_std",
    "mel_10_max",
    "mel_10_impact_delta",
    "mel_10_tail_delta",
    "mel_11_mean",
    "mel_11_std",
    "mel_11_max",
    "mel_11_impact_delta",
    "mel_11_tail_delta",
    "mel_12_mean",
    "mel_12_std",
    "mel_12_max",
    "mel_12_impact_delta",
    "mel_12_tail_delta",
    "mel_13_mean",
    "mel_13_std",
    "mel_13_max",
    "mel_13_impact_delta",
    "mel_13_tail_delta",
    "mel_14_mean",
    "mel_14_std",
    "mel_14_max",
    "mel_14_impact_delta",
    "mel_14_tail_delta",
    "mel_15_mean",
    "mel_15_std",
    "mel_15_max",
    "mel_15_impact_delta",
    "mel_15_tail_delta",
    "mel_16_mean",
    "mel_16_std",
    "mel_16_max",
    "mel_16_impact_delta",
    "mel_16_tail_delta",
    "mel_17_mean",
    "mel_17_std",
    "mel_17_max",
    "mel_17_impact_delta",
    "mel_17_tail_delta",
    "mel_18_mean",
    "mel_18_std",
    "mel_18_max",
    "mel_18_impact_delta",
    "mel_18_tail_delta",
    "mel_19_mean",
    "mel_19_std",
    "mel_19_max",
    "mel_19_impact_delta",
    "mel_19_tail_delta",
    "mel_20_mean",
    "mel_20_std",
    "mel_20_max",
    "mel_20_impact_delta",
    "mel_20_tail_delta",
    "mel_21_mean",
    "mel_21_std",
    "mel_21_max",
    "mel_21_impact_delta",
    "mel_21_tail_delta",
    "mel_22_mean",
    "mel_22_std",
    "mel_22_max",
    "mel_22_impact_delta",
    "mel_22_tail_delta",
    "mel_23_mean",
    "mel_23_std",
    "mel_23_max",
    "mel_23_impact_delta",
    "mel_23_tail_delta",
    "mel_24_mean",
    "mel_24_std",
    "mel_24_max",
    "mel_24_impact_delta",
    "mel_24_tail_delta",
    "mel_25_mean",
    "mel_25_std",
    "mel_25_max",
    "mel_25_impact_delta",
    "mel_25_tail_delta",
    "mel_26_mean",
    "mel_26_std",
    "mel_26_max",
    "mel_26_impact_delta",
    "mel_26_tail_delta",
    "mel_27_mean",
    "mel_27_std",
    "mel_27_max",
    "mel_27_impact_delta",
    "mel_27_tail_delta",
    "mel_28_mean",
    "mel_28_std",
    "mel_28_max",
    "mel_28_impact_delta",
    "mel_28_tail_delta",
    "mel_29_mean",
    "mel_29_std",
    "mel_29_max",
    "mel_29_impact_delta",
    "mel_29_tail_delta",
    "mel_30_mean",
    "mel_30_std",
    "mel_30_max",
    "mel_30_impact_delta",
    "mel_30_tail_delta",
    "mel_31_mean",
    "mel_31_std",
    "mel_31_max",
    "mel_31_impact_delta",
    "mel_31_tail_delta",
    "mel_32_mean",
    "mel_32_std",
    "mel_32_max",
    "mel_32_impact_delta",
    "mel_32_tail_delta",
    "mel_33_mean",
    "mel_33_std",
    "mel_33_max",
    "mel_33_impact_delta",
    "mel_33_tail_delta",
    "mel_34_mean",
    "mel_34_std",
    "mel_34_max",
    "mel_34_impact_delta",
    "mel_34_tail_delta",
    "mel_35_mean",
    "mel_35_std",
    "mel_35_max",
    "mel_35_impact_delta",
    "mel_35_tail_delta",
    "mel_36_mean",
    "mel_36_std",
    "mel_36_max",
    "mel_36_impact_delta",
    "mel_36_tail_delta",
    "mel_37_mean",
    "mel_37_std",
    "mel_37_max",
    "mel_37_impact_delta",
    "mel_37_tail_delta",
    "mel_38_mean",
    "mel_38_std",
    "mel_38_max",
    "mel_38_impact_delta",
    "mel_38_tail_delta",
    "mel_39_mean",
    "mel_39_std",
    "mel_39_max",
    "mel_39_impact_delta",
    "mel_39_tail_delta"
  ],
  "mean": [
    -7.33361454619801,
    2.212769534579679,
    -3.0652590600914618,
    0.25800706417624264,
    3.0695777121973347,
    -3.136116689633285,
    -12.241323363936434,
    1.7041768992931856,
    -8.493133811522865,
    2.0083522968690435,
    -1.9154742477911482,
    -12.381739004512394,
    1.8054240572502316,
    -8.417172268348095,
    2.1890032467662675,
    -2.133670256619384,
    -12.528883010261245,
    1.86979426519088,
    -8.434999720279055,
    2.27516543502803,
    -2.2950834110084353,
    -12.639735367235104,
    1.9261074872593273,
    -8.40253194756041,
    2.2769513980527916,
    -2.358403114805859,
    -12.752330623636238,
    1.9481824467519813,
    -8.443730235287388,
    2.2966563031319662,
    -2.4356276990868446,
    -12.866665384499228,
    1.9571642267622902,
    -8.517313417321336,
    2.2859143603423417,
    -2.472637704561785,
    -12.898608268202542,
    1.9899087356844392,
    -8.490469547127,
    2.289896498597024,
    -2.5045925536641125,
    -12.917369170028683,
    2.0180495051881215,
    -8.418760572099524,
    2.243238274644454,
    -2.505842820722518,
    -13.00061248753363,
    2.0304012953805564,
    -8.427933768354553,
    2.256581865539749,
    -2.532753795023493,
    -13.080154095130283,
    2.0268431956407253,
    -8.467394985272913,
    2.300062378325862,
    -2.5890483075036084,
    -13.146730949020004,
    1.9902336572627424,
    -8.569426742390045,
    2.266683493533779,
    -2.5591473063628327,
    -13.241503450676857,
    1.940615239370546,
    -8.78344533106982,
    2.261535139276683,
    -2.514324755238978,
    -13.352448387225447,
    1.9265489634188075,
    -8.878176602232694,
    2.2476004106505387,
    -2.506727663079369,
    -13.449121011706346,
    1.910960854708654,
    -8.995715564860946,
    2.2409045566525716,
    -2.509745889609412,
    -13.499215810944868,
    1.9111450674425352,
    -9.042974292307386,
    2.228192101529717,
    -2.4788245253501113,
    -13.608178773276153,
    1.908121301538505,
    -9.113097998183367,
    2.23827380863292,
    -2.4596049545063963,
    -13.726296263927193,
    1.8958224754060273,
    -9.268855556252843,
    2.2141619999011564,
    -2.4626993015481355,
    -13.84674226205356,
    1.8698419684620582,
    -9.410931629742242,
    2.1771244865278496,
    -2.4252160611205134,
    -13.92898155333488,
    1.8528102818510266,
    -9.501173152948171,
    2.161088708669611,
    -2.4204817333479567,
    -14.045076780747102,
    1.842950046941078,
    -9.607097413653177,
    2.1571376576533265,
    -2.3938797878315454,
    -14.177173176515227,
    1.8305399624426417,
    -9.74322930324774,
    2.1643407973853432,
    -2.405893191405717,
    -14.319640397729078,
    1.82126026922405,
    -9.869163242611037,
    2.1292129812302054,
    -2.4342599324268193,
    -14.460572899195098,
    1.8098611961864977,
    -10.015009025934981,
    2.057293715941654,
    -2.3932436880193344,
    -14.515455136705453,
    1.7933041102699572,
    -10.111646545052315,
    1.9932598675492739,
    -2.310815104422987,
    -14.616152587482693,
    1.7596704437607011,
    -10.28712858692044,
    1.9618577023685733,
    -2.260532708353784,
    -14.724565188521357,
    1.7390494881100365,
    -10.430374549041202,
    1.936440254753197,
    -2.2266575001151554,
    -14.8134806337068,
    1.7231199878105856,
    -10.486517364696105,
    1.884950953451472,
    -2.2187159807890966,
    -14.90881212192468,
    1.7128117553671838,
    -10.56367388239889,
    1.833043953270421,
    -2.203473047075443,
    -14.997065053946592,
    1.6876011499188885,
    -10.708728527877955,
    1.8388013812371469,
    -2.1791797380118414,
    -15.083225701781807,
    1.6512491233910007,
    -10.888774130644064,
    1.8512463804195758,
    -2.1268782754250086,
    -15.180421113908064,
    1.6179320082150324,
    -11.055778463191713,
    1.7765415775590514,
    -2.060892572868281,
    -15.297564487449417,
    1.6056797734982744,
    -11.191041694238454,
    1.7232604914832559,
    -2.051162544188287,
    -15.470766840968334,
    1.5775144832707921,
    -11.392245851725262,
    1.6754808392970897,
    -2.0295475178956135,
    -15.630415881483124,
    1.5531732265115616,
    -11.605247422640467,
    1.6258641066668227,
    -1.977505475944285,
    -15.733699496602163,
    1.538053579698857,
    -11.727109685448474,
    1.5753738844659118,
    -1.9452251320526655,
    -15.869069450133537,
    1.511709082929726,
    -11.912077977735446,
    1.5088945988013722,
    -1.8975487556879678,
    -16.009978168683357,
    1.4858039882764102,
    -12.10284776041728,
    1.4841779882822905,
    -1.8616418311583673,
    -16.122700516641128,
    1.4447708785570523,
    -12.288807805271164,
    1.4273870177643868,
    -1.8121988771773125,
    -16.269888833238085,
    1.3774598447113071,
    -12.535270843928675,
    1.3413029364265698,
    -1.7229916038159976,
    -16.604301067810912,
    1.24308629319691,
    -13.180621407812158,
    1.1883470207583822,
    -1.5136082629932053
  ],
  "std": [
    2.930012685730597,
    1.443331406499215,
    0.7300225134307788,
    0.1989506080772066,
    3.364325999436296,
    3.227147368271817,
    3.468447720010351,
    1.0271250532573277,
    3.5478507659781537,
    2.6713580219535817,
    2.5302221222613523,
    3.325611085090508,
    1.0301143094496727,
    3.305492269627202,
    2.725471969805897,
    2.584646626502934,
    3.195634006187457,
    1.0330235626892388,
    3.0224032762054502,
    2.7390920772510614,
    2.6348671289495984,
    3.1025613527981153,
    1.028009176870375,
    2.9143684363739837,
    2.7483354438308414,
    2.7216920514079477,
    3.006036869023558,
    1.0515520273263017,
    2.8064600473310777,
    2.772885693488068,
    2.788304886024328,
    2.939089260286199,
    1.04648199161658,
    2.7078675629468747,
    2.7526803296003908,
    2.73995011333611,
    2.9608113990664737,
    1.013962862189244,
    2.6647690793610352,
    2.7363754374216014,
    2.670007059560894,
    2.9929124296069443,
    1.0067511893438355,
    2.606402905816161,
    2.7825642966952095,
    2.6616564468098023,
    2.9649311134091674,
    0.9923549225202823,
    2.5579881295311333,
    2.810436336075936,
    2.623865044011038,
    2.958938388622907,
    0.9950841626895565,
    2.5309384660557317,
    2.779291413308663,
    2.6151567913247606,
    2.956684283656109,
    0.9695031331379369,
    2.4664495352085782,
    2.7236496928927347,
    2.5338363939852364,
    2.9320729871824693,
    0.9422428553340788,
    2.3315576063789023,
    2.6283839840948775,
    2.4683736797992015,
    2.8734199921084147,
    0.9358247754475794,
    2.276818463751324,
    2.555228597798594,
    2.4479545591468526,
    2.8115441923715747,
    0.9155828114930346,
    2.2089552332621545,
    2.5190284825937987,
    2.375157915058401,
    2.79992062126417,
    0.9012587150389305,
    2.165893896877982,
    2.5270420065029646,
    2.3457149550738823,
    2.7760839652839233,
    0.8851485794901338,
    2.1654532916727587,
    2.4307765683082114,
    2.345243842270099,
    2.7068160204020963,
    0.8947301115264928,
    2.105687674543453,
    2.3783784433881143,
    2.3531164692357884,
    2.670763746759626,
    0.8927185687137336,
    2.080031508623294,
    2.3928019527077335,
    2.3266037209330634,
    2.6644618675002207,
    0.8815076253840876,
    2.0773466766331365,
    2.388642142842823,
    2.2560622234881937,
    2.599572159603122,
    0.8744870606884925,
    2.0584541129839553,
    2.3791718384229137,
    2.267809646873669,
    2.5589778089324984,
    0.8861662598723915,
    2.0995698320831044,
    2.3492301343231032,
    2.2753698741939377,
    2.5069783417064335,
    0.8797462758853825,
    2.1394075872102505,
    2.309852480990033,
    2.2378645776794976,
    2.4520386940385737,
    0.8724098166703161,
    2.159063183294125,
    2.2995270849449385,
    2.2498954987507536,
    2.4457631921204963,
    0.8544706691795688,
    2.136427289308301,
    2.3318232268962897,
    2.2293925770725527,
    2.4332817167693688,
    0.834705412160685,
    2.158356444158888,
    2.255911089757937,
    2.1680223401244234,
    2.371711670000276,
    0.8129628860440145,
    2.1468630286543755,
    2.2160437659217584,
    2.130600670444193,
    2.3297601565473003,
    0.7939255934748362,
    2.156410859133887,
    2.2323274482606696,
    2.073838768902997,
    2.250875649991761,
    0.7970394004289441,
    2.186101829116647,
    2.2294157710024627,
    2.0542704031199297,
    2.2364627647773574,
    0.7981617067015259,
    2.2237446796916003,
    2.1694917264644507,
    2.0357000944382713,
    2.2430267559579997,
    0.7986767388521417,
    2.2715018869462957,
    2.074921194310453,
    2.0403423751372185,
    2.309978405551055,
    0.8101669294887516,
    2.385878320121799,
    2.0651960999074217,
    2.065697117642069,
    2.239441897507493,
    0.8040511282710517,
    2.3901928913559845,
    2.033555227043017,
    2.0207542211438017,
    2.131549267127914,
    0.7839805718198254,
    2.3326576836220765,
    1.9614476507340906,
    1.9645591781150207,
    2.1036772089669062,
    0.7848875599326536,
    2.3922836031380164,
    1.9824894541103943,
    1.9774492751448645,
    2.073015696735122,
    0.7858745293223457,
    2.414273928254079,
    2.0409506080917605,
    1.9874371746062494,
    2.0002697672368557,
    0.7933862344305166,
    2.4177531475005622,
    2.0240258792368313,
    1.9966184833218161,
    1.937694872131744,
    0.7963901346385167,
    2.4421276090566995,
    1.9786262336226008,
    1.9644747978008348,
    1.892481759332463,
    0.7773653749854219,
    2.44114811352714,
    1.894026098378292,
    1.9022065512227047,
    1.815933146908629,
    0.75373067444198,
    2.4367067144317263,
    1.7838126920584974,
    1.846208848818792,
    1.684839169414232,
    0.7359219731860489,
    2.442815178972138,
    1.6672380622564593,
    1.7147101144416454
  ],
  "weights": [
    0.06894122330696356,
    -0.10770754492514895,
    -0.1560757608209782,
    -0.050605352903916836,
    0.02786042916941254,
    -0.008368740331870439,
    0.09482423365587914,
    -0.11340190376333131,
    0.033186601339232284,
    0.0599829669329159,
    0.10670993433522674,
    0.1295851071512589,
    0.01829100565701811,
    0.11599740723556029,
    0.21001873312660344,
    -0.05654240385330382,
    0.10884678168722328,
    0.007473828576619786,
    0.07130936006050369,
    0.19607188292516475,
    -0.09235325297955023,
    0.049638309218483945,
    -0.06757652487793586,
    -0.02508306562178641,
    0.0905520431222009,
    -0.05825342436979993,
    0.020370222964010677,
    0.0005807284935832519,
    0.0126876775064018,
    0.11315632981267916,
    -0.14711760305457502,
    0.0014632423324612315,
    -0.011189226731606607,
    -0.04388430657941202,
    0.01246248781617777,
    -0.12413719840630319,
    -0.014232759972044052,
    0.00465857449888138,
    -0.09879948396331607,
    -0.08707778156813913,
    -0.11683869575030098,
    -0.020857912449602636,
    0.05298290332805703,
    -0.04988419973782292,
    -0.13850793537514583,
    -0.10454596020050015,
    -0.02540589989583196,
    0.120204926189705,
    0.10786812389905634,
    -0.16584787496217315,
    -0.05441277574626094,
    -0.02078507105241521,
    0.1306564244676884,
    0.2023633855628711,
    -0.10138526974640319,
    -0.05822591487684239,
    -0.021839779170247296,
    0.029822629800182618,
    0.09654925468276918,
    -0.09716554954596707,
    0.012012142574600914,
    -0.007261443179793481,
    -0.06848675327358775,
    -0.029326135021276793,
    -0.10534117051023813,
    0.08379355187100972,
    0.0024333131249687874,
    -0.09096186214183868,
    -0.07467332689443448,
    -0.09854243200847317,
    0.0891876737915659,
    0.0034016790814754656,
    -0.07534026770677142,
    -0.059366330066451256,
    -0.1008543372399574,
    0.06560734001855295,
    -0.0071915846030196195,
    -0.04469345378056101,
    -0.01721496823017547,
    -0.09429889223483902,
    0.05739605999162563,
    0.0040105756831986085,
    -0.009535758226347923,
    0.05448182332996274,
    -0.06352250209690898,
    0.050906735386912365,
    -0.0031402413105125603,
    -0.01715044711585445,
    0.06309433116373886,
    -0.03222351621037986,
    0.036822330210246695,
    -0.019092430176002127,
    -0.039738878532038786,
    0.02694675673324008,
    0.007653964081273553,
    0.016839342845307758,
    -0.03479782435553986,
    -0.03382054815166566,
    0.01852641353793597,
    0.02885624722649627,
    -0.008827032496861282,
    -0.048567359991773945,
    -0.009617172099929879,
    0.05721683869083835,
    -0.0064792192586094624,
    -0.005040987049531875,
    -0.05416130127978225,
    0.009656381281997776,
    0.07829979000615737,
    -0.03912613815568262,
    0.00029962110378580875,
    -0.055656337865262494,
    0.00948621602642305,
    0.10036736627822501,
    -0.022689650112594623,
    0.014473357870880223,
    -0.08977425099395189,
    0.0014816617855326248,
    0.07526242793502608,
    -0.01549896948935725,
    0.01113353315928963,
    -0.09423481258987383,
    -0.0200055070650053,
    0.01408169084920095,
    -0.012705121449379774,
    0.02652880948087405,
    -0.08047085956866763,
    -0.0693301979110407,
    -0.07288069649465954,
    -0.047793744709981184,
    0.09964645664920532,
    -0.06572847189130154,
    -0.07320555049055372,
    -0.04995450410871584,
    -0.04902601911720544,
    0.13220311387500683,
    -0.04339006921061696,
    -0.029221058715806946,
    0.04023854895982651,
    -0.0720742834939073,
    0.1091748368134952,
    -0.028972662130427155,
    0.03535736922603713,
    0.15374404185784762,
    -0.08450644671071449,
    0.060966515025753384,
    -0.037248022962618935,
    0.07124477172153525,
    0.22064811531000944,
    -0.045912220020917875,
    0.02652882884007743,
    -0.050078441684027676,
    0.05425451462997106,
    0.20894418333044568,
    -0.012791722923239027,
    0.03854833719546067,
    -0.07339776730844678,
    -0.0017997261124611881,
    0.11088873616772134,
    -0.013325378148757434,
    0.07335445381873582,
    -0.09972974164653324,
    -0.012796874150410741,
    0.10058091306188305,
    0.007734216473958625,
    0.06639860811215749,
    -0.11598950369884814,
    -0.01133384074997309,
    0.09980309075445021,
    0.042973270900382346,
    0.039002982718826705,
    -0.1120274161371726,
    -0.000401538433958363,
    0.08879806746156482,
    0.05116048220670452,
    0.004515180543067955,
    -0.10922474075054894,
    0.012339971097821157,
    0.09366477508036669,
    0.06700383025702251,
    -0.02989044758635933,
    -0.10914967002397545,
    -0.027813503689861782,
    0.03272705319114818,
    0.0419729641360931,
    -0.01536939720634269,
    -0.10956323674274498,
    -0.015678922334291922,
    0.04736488791193895,
    0.03571289479546765,
    -0.027424795996761467,
    -0.10618508013386879,
    -0.023608061783002707,
    0.03454021108021505,
    0.01563107171446461,
    -0.019745920917266856,
    -0.09593636351187003,
    -0.019664209803575024,
    0.04804313209109495,
    -0.020893480052982298,
    -0.010643385250064344,
    -0.07780920168545198,
    -0.0182878659158525,
    0.043424259452309696,
    -0.02343995512971673,
    -0.011111012427012705
  ],
  "bias": -2.579527198012674,
  "training": {
    "generatedAt": "2026-04-24T22:39:47.199Z",
    "positives": 42,
    "negatives": 1110,
    "preparedManifest": "data/stage1b_prepared/manifest.jsonl",
    "thresholdSelection": "cross_validation_worst_fold_recall",
    "cvRecommendedThreshold": 0.79,
    "pooledCvThreshold": 0.79,
    "cv": {
      "threshold": 0.79,
      "tp": 42,
      "fp": 0,
      "tn": 1110,
      "fn": 0,
      "precision": 1,
      "recall": 1,
      "specificity": 1,
      "f1": 1,
      "folds": [
        {
          "threshold": 0.79,
          "tp": 9,
          "fp": 0,
          "tn": 222,
          "fn": 0,
          "precision": 1,
          "recall": 1,
          "specificity": 1,
          "f1": 1
        },
        {
          "threshold": 0.79,
          "tp": 9,
          "fp": 0,
          "tn": 222,
          "fn": 0,
          "precision": 1,
          "recall": 1,
          "specificity": 1,
          "f1": 1
        },
        {
          "threshold": 0.79,
          "tp": 8,
          "fp": 0,
          "tn": 222,
          "fn": 0,
          "precision": 1,
          "recall": 1,
          "specificity": 1,
          "f1": 1
        },
        {
          "threshold": 0.79,
          "tp": 8,
          "fp": 0,
          "tn": 222,
          "fn": 0,
          "precision": 1,
          "recall": 1,
          "specificity": 1,
          "f1": 1
        },
        {
          "threshold": 0.79,
          "tp": 8,
          "fp": 0,
          "tn": 222,
          "fn": 0,
          "precision": 1,
          "recall": 1,
          "specificity": 1,
          "f1": 1
        }
      ],
      "worstRecall": 1,
      "worstSpecificity": 1
    },
    "pooledCv": {
      "threshold": 0.79,
      "tp": 42,
      "fp": 0,
      "tn": 1110,
      "fn": 0,
      "precision": 1,
      "recall": 1,
      "specificity": 1,
      "f1": 1
    },
    "oofScoreSeparation": {
      "positives": {
        "count": 42,
        "min": 0.7902165097787531,
        "p05": 0.9024658922667821,
        "p50": 0.9536146216863993,
        "p95": 0.9916431033433327,
        "max": 0.9949026849417216,
        "mean": 0.9489729199972107
      },
      "negatives": {
        "count": 1110,
        "min": 0.00012753167825597914,
        "p05": 0.007438523413004141,
        "p50": 0.061673801833256554,
        "p95": 0.30057106678994516,
        "max": 0.7185436730658334,
        "mean": 0.09137711989951028
      },
      "minPositiveP": 0.7902165097787531,
      "maxNegativeP": 0.7185436730658334,
      "separationMargin": 0.07167283671291969
    },
    "trainAtCvThreshold": {
      "threshold": 0.79,
      "tp": 42,
      "fp": 0,
      "tn": 1110,
      "fn": 0,
      "precision": 1,
      "recall": 1,
      "specificity": 1,
      "f1": 1
    },
    "trainScoreSeparation": {
      "positives": {
        "count": 42,
        "min": 0.841515776093477,
        "p05": 0.9142236281459758,
        "p50": 0.9579284909810015,
        "p95": 0.9910621483909431,
        "max": 0.9951097177960978,
        "mean": 0.953070740812052
      },
      "negatives": {
        "count": 1110,
        "min": 0.0001776333882545357,
        "p05": 0.007849395141213814,
        "p50": 0.06146054747409496,
        "p95": 0.2925272650800802,
        "max": 0.6929440958756634,
        "mean": 0.08949246529717111
      },
      "minPositiveP": 0.841515776093477,
      "maxNegativeP": 0.6929440958756634,
      "separationMargin": 0.14857168021781364
    },
    "trainOnlyMetrics": {
      "threshold": 0.84,
      "tp": 42,
      "fp": 0,
      "tn": 1110,
      "fn": 0,
      "precision": 1,
      "recall": 1,
      "specificity": 1,
      "f1": 1
    }
  }
}