{
  "version": 1,
  "type": "standardized_logistic_regression",
  "task": "stage1b_shot_verifier",
  "featureExtractor": "logmel_summary",
  "sampleRate": 16000,
  "clipSamples": 8000,
  "threshold": 0.8,
  "features": [
    "logmel_total_mean",
    "logmel_total_std",
    "logmel_total_max",
    "logmel_total_peak_pos",
    "logmel_total_impact_delta",
    "logmel_total_tail_delta",
    "mel_00_mean",
    "mel_00_std",
    "mel_00_max",
    "mel_00_impact_delta",
    "mel_00_tail_delta",
    "mel_01_mean",
    "mel_01_std",
    "mel_01_max",
    "mel_01_impact_delta",
    "mel_01_tail_delta",
    "mel_02_mean",
    "mel_02_std",
    "mel_02_max",
    "mel_02_impact_delta",
    "mel_02_tail_delta",
    "mel_03_mean",
    "mel_03_std",
    "mel_03_max",
    "mel_03_impact_delta",
    "mel_03_tail_delta",
    "mel_04_mean",
    "mel_04_std",
    "mel_04_max",
    "mel_04_impact_delta",
    "mel_04_tail_delta",
    "mel_05_mean",
    "mel_05_std",
    "mel_05_max",
    "mel_05_impact_delta",
    "mel_05_tail_delta",
    "mel_06_mean",
    "mel_06_std",
    "mel_06_max",
    "mel_06_impact_delta",
    "mel_06_tail_delta",
    "mel_07_mean",
    "mel_07_std",
    "mel_07_max",
    "mel_07_impact_delta",
    "mel_07_tail_delta",
    "mel_08_mean",
    "mel_08_std",
    "mel_08_max",
    "mel_08_impact_delta",
    "mel_08_tail_delta",
    "mel_09_mean",
    "mel_09_std",
    "mel_09_max",
    "mel_09_impact_delta",
    "mel_09_tail_delta",
    "mel_10_mean",
    "mel_10_std",
    "mel_10_max",
    "mel_10_impact_delta",
    "mel_10_tail_delta",
    "mel_11_mean",
    "mel_11_std",
    "mel_11_max",
    "mel_11_impact_delta",
    "mel_11_tail_delta",
    "mel_12_mean",
    "mel_12_std",
    "mel_12_max",
    "mel_12_impact_delta",
    "mel_12_tail_delta",
    "mel_13_mean",
    "mel_13_std",
    "mel_13_max",
    "mel_13_impact_delta",
    "mel_13_tail_delta",
    "mel_14_mean",
    "mel_14_std",
    "mel_14_max",
    "mel_14_impact_delta",
    "mel_14_tail_delta",
    "mel_15_mean",
    "mel_15_std",
    "mel_15_max",
    "mel_15_impact_delta",
    "mel_15_tail_delta",
    "mel_16_mean",
    "mel_16_std",
    "mel_16_max",
    "mel_16_impact_delta",
    "mel_16_tail_delta",
    "mel_17_mean",
    "mel_17_std",
    "mel_17_max",
    "mel_17_impact_delta",
    "mel_17_tail_delta",
    "mel_18_mean",
    "mel_18_std",
    "mel_18_max",
    "mel_18_impact_delta",
    "mel_18_tail_delta",
    "mel_19_mean",
    "mel_19_std",
    "mel_19_max",
    "mel_19_impact_delta",
    "mel_19_tail_delta",
    "mel_20_mean",
    "mel_20_std",
    "mel_20_max",
    "mel_20_impact_delta",
    "mel_20_tail_delta",
    "mel_21_mean",
    "mel_21_std",
    "mel_21_max",
    "mel_21_impact_delta",
    "mel_21_tail_delta",
    "mel_22_mean",
    "mel_22_std",
    "mel_22_max",
    "mel_22_impact_delta",
    "mel_22_tail_delta",
    "mel_23_mean",
    "mel_23_std",
    "mel_23_max",
    "mel_23_impact_delta",
    "mel_23_tail_delta",
    "mel_24_mean",
    "mel_24_std",
    "mel_24_max",
    "mel_24_impact_delta",
    "mel_24_tail_delta",
    "mel_25_mean",
    "mel_25_std",
    "mel_25_max",
    "mel_25_impact_delta",
    "mel_25_tail_delta",
    "mel_26_mean",
    "mel_26_std",
    "mel_26_max",
    "mel_26_impact_delta",
    "mel_26_tail_delta",
    "mel_27_mean",
    "mel_27_std",
    "mel_27_max",
    "mel_27_impact_delta",
    "mel_27_tail_delta",
    "mel_28_mean",
    "mel_28_std",
    "mel_28_max",
    "mel_28_impact_delta",
    "mel_28_tail_delta",
    "mel_29_mean",
    "mel_29_std",
    "mel_29_max",
    "mel_29_impact_delta",
    "mel_29_tail_delta",
    "mel_30_mean",
    "mel_30_std",
    "mel_30_max",
    "mel_30_impact_delta",
    "mel_30_tail_delta",
    "mel_31_mean",
    "mel_31_std",
    "mel_31_max",
    "mel_31_impact_delta",
    "mel_31_tail_delta",
    "mel_32_mean",
    "mel_32_std",
    "mel_32_max",
    "mel_32_impact_delta",
    "mel_32_tail_delta",
    "mel_33_mean",
    "mel_33_std",
    "mel_33_max",
    "mel_33_impact_delta",
    "mel_33_tail_delta",
    "mel_34_mean",
    "mel_34_std",
    "mel_34_max",
    "mel_34_impact_delta",
    "mel_34_tail_delta",
    "mel_35_mean",
    "mel_35_std",
    "mel_35_max",
    "mel_35_impact_delta",
    "mel_35_tail_delta",
    "mel_36_mean",
    "mel_36_std",
    "mel_36_max",
    "mel_36_impact_delta",
    "mel_36_tail_delta",
    "mel_37_mean",
    "mel_37_std",
    "mel_37_max",
    "mel_37_impact_delta",
    "mel_37_tail_delta",
    "mel_38_mean",
    "mel_38_std",
    "mel_38_max",
    "mel_38_impact_delta",
    "mel_38_tail_delta",
    "mel_39_mean",
    "mel_39_std",
    "mel_39_max",
    "mel_39_impact_delta",
    "mel_39_tail_delta"
  ],
  "mean": [
    -7.392475644579317,
    2.2458474435844478,
    -3.068204942553864,
    0.25977011494252605,
    3.1399612274524924,
    -3.197752018025105,
    -12.363235716416572,
    1.7215113512624438,
    -8.576166651515125,
    2.0402210923915987,
    -1.9654865781190491,
    -12.500247200227157,
    1.8173981295525243,
    -8.505946173927171,
    2.2070597264101206,
    -2.16699508606126,
    -12.642248447576087,
    1.8858727952862495,
    -8.504594450634118,
    2.296816977529898,
    -2.3301405936227755,
    -12.754144124174005,
    1.9361484861148657,
    -8.479226514328698,
    2.3171176994221767,
    -2.4103480701658415,
    -12.846515042430017,
    1.9577910772155966,
    -8.509485791459321,
    2.341453626378569,
    -2.4813812481168283,
    -12.941673632407966,
    1.9719644970609662,
    -8.552603928338689,
    2.3418649507799674,
    -2.5171250417298077,
    -12.982806303788097,
    2.0003625748782516,
    -8.53705957248773,
    2.3533854419058757,
    -2.5447770344641287,
    -13.009146151908036,
    2.019498756931251,
    -8.485887145610452,
    2.319263179115717,
    -2.5488392302892473,
    -13.083011414706817,
    2.0316963915385844,
    -8.501555702469549,
    2.3286124146398297,
    -2.5700367087756857,
    -13.156719060332325,
    2.0264145882353826,
    -8.550478358837003,
    2.3579466745266044,
    -2.6163149109364383,
    -13.222546680347929,
    1.9954990537680923,
    -8.648097199048209,
    2.3211678892012673,
    -2.5925460484457648,
    -13.308565506927774,
    1.9575581656468337,
    -8.82331416797833,
    2.324478114108074,
    -2.564521968253316,
    -13.417468891894533,
    1.9441613033427176,
    -8.912716656023717,
    2.312524680379471,
    -2.560895395708266,
    -13.506179728553008,
    1.928807015486258,
    -9.024556071932414,
    2.30366444323392,
    -2.5578371301367957,
    -13.54443886095635,
    1.9266414639421818,
    -9.071080037860307,
    2.2947783792219947,
    -2.5252225400636843,
    -13.648859211492589,
    1.9216805797750984,
    -9.142952033263247,
    2.300916110970296,
    -2.504278560215816,
    -13.753866595155777,
    1.9139286314958468,
    -9.275880808876371,
    2.2740156909697484,
    -2.506591613602776,
    -13.860643658793098,
    1.893925516475987,
    -9.389974016073017,
    2.236011404953692,
    -2.4727987202240485,
    -13.932774841911325,
    1.8809669739165098,
    -9.457790633346367,
    2.2223067370322513,
    -2.47503132620281,
    -14.044308877160102,
    1.8712647250293923,
    -9.560395624925468,
    2.2225991420878803,
    -2.448745131528808,
    -14.173127269542901,
    1.8573101858829226,
    -9.699180863859144,
    2.2263882214766055,
    -2.4594673789024544,
    -14.31636660775324,
    1.8465822582179883,
    -9.829494534593907,
    2.189277650971499,
    -2.4910698832235325,
    -14.446839759017651,
    1.8367307704578852,
    -9.960344658402828,
    2.129497536197029,
    -2.4581391627575933,
    -14.492871411069816,
    1.820560681348143,
    -10.048624864340654,
    2.0673501405870796,
    -2.3748435282478892,
    -14.59474923711327,
    1.7865730585571982,
    -10.220933188771296,
    2.0365584988482803,
    -2.3303305543085147,
    -14.705089931659925,
    1.7648421277100872,
    -10.369449750552317,
    2.007318675211982,
    -2.3009175369291133,
    -14.801446454775784,
    1.747104046563903,
    -10.440745472081842,
    1.9575603967258008,
    -2.289558884246908,
    -14.907559026788242,
    1.7346169956723467,
    -10.536415640001056,
    1.9040459695491447,
    -2.2640805428265054,
    -14.996820437545882,
    1.7063676042301081,
    -10.690963101924966,
    1.9021617298624738,
    -2.230710904062685,
    -15.075385291495177,
    1.6695607719880843,
    -10.861385230544327,
    1.9036674039102583,
    -2.1717727866304695,
    -15.161702784022252,
    1.639515429276149,
    -11.009716809573552,
    1.8296020339740864,
    -2.1133415082478817,
    -15.276302172661628,
    1.6251009492838382,
    -11.146629401114412,
    1.7785768834014313,
    -2.106806325598109,
    -15.443904455477071,
    1.596655527586723,
    -11.340998224510466,
    1.727066988140469,
    -2.0800586514091517,
    -15.59370514626378,
    1.5718205009583475,
    -11.547913865532223,
    1.6740629472478454,
    -2.021227752898413,
    -15.692590233203015,
    1.5539712040986593,
    -11.676483583767537,
    1.626255563573834,
    -1.9859032481597694,
    -15.826001226644864,
    1.5292880272255758,
    -11.853515749938449,
    1.5673472371354655,
    -1.94236272294186,
    -15.963321683333282,
    1.5045157928600448,
    -12.040776623323708,
    1.5419411583430664,
    -1.9029946773312314,
    -16.07893905077822,
    1.4628019677244855,
    -12.230265001998466,
    1.4838409892493811,
    -1.8520667594397953,
    -16.236289522196735,
    1.391971257092457,
    -12.491885839990813,
    1.3954410140741478,
    -1.7624368883570372,
    -16.57392714351108,
    1.2567813469503057,
    -13.140485141647837,
    1.2329024090742373,
    -1.547784358903996
  ],
  "std": [
    2.957055034422398,
    1.4584030581176681,
    0.7365102802553418,
    0.20048326054164967,
    3.3912561046178085,
    3.2563306111536585,
    3.4654082839108424,
    1.0406914465015749,
    3.5785968711956397,
    2.699661832697151,
    2.552045285855693,
    3.3214093955192276,
    1.0425261683898537,
    3.3238539649995054,
    2.7399687785363396,
    2.599832548403136,
    3.189191064636205,
    1.0431799397203776,
    3.0496518238710815,
    2.758106464602017,
    2.6425020503079084,
    3.0798655461923294,
    1.0425757581908932,
    2.9292642594242033,
    2.7648561727720873,
    2.711242408057083,
    3.000314056306637,
    1.064101444141335,
    2.8253975786067276,
    2.787931173581817,
    2.7684972273399784,
    2.9492097256053267,
    1.0586249326187558,
    2.742253751929644,
    2.771391270641393,
    2.7364307649104873,
    2.956144750842088,
    1.02716549922597,
    2.68645602633574,
    2.749419476891976,
    2.68073278545589,
    2.9753867789638466,
    1.0204506737493702,
    2.6083222998615296,
    2.778915938858092,
    2.666445499359635,
    2.956281452490724,
    1.0045973665604966,
    2.5650783238471315,
    2.8040983113451845,
    2.6417215600891857,
    2.957457725103448,
    1.0054923834927711,
    2.5245273405748265,
    2.772090057262822,
    2.634848366737632,
    2.955762562017588,
    0.9802684473787355,
    2.458390981685083,
    2.7258833789093058,
    2.554766293704319,
    2.9410058492271847,
    0.9514968735737019,
    2.3474398122712024,
    2.632776323386621,
    2.489383345531021,
    2.8832366474569042,
    0.9448972960634879,
    2.2911916234966427,
    2.558856555268157,
    2.4661191505348983,
    2.8251741573721385,
    0.9240872817324529,
    2.2248165501895465,
    2.525576978701655,
    2.3945804552884047,
    2.8208452571182407,
    0.9095883036013753,
    2.1815959706306205,
    2.5237702351368663,
    2.3626632373047696,
    2.8033678927961807,
    0.893947115212008,
    2.1886562037920263,
    2.4276020833994427,
    2.3634877670415184,
    2.7402304607231467,
    0.9023075479742224,
    2.134559733820716,
    2.3890741493610217,
    2.372360752615066,
    2.707888625339748,
    0.8971139378607929,
    2.105063489760105,
    2.411017273755457,
    2.3472133277437157,
    2.703332356577946,
    0.882253205223742,
    2.091059655647896,
    2.408842900084985,
    2.2724703912776447,
    2.637237282799013,
    0.8742489251969896,
    2.069254578921389,
    2.396078041506152,
    2.28530068322532,
    2.5961172257273457,
    0.8877191242351951,
    2.1122612446157145,
    2.366909794739981,
    2.2938085691315186,
    2.543203694022426,
    0.8817781215109571,
    2.151544867274729,
    2.3268312992567703,
    2.252943792694684,
    2.48499313848753,
    0.8723867568309567,
    2.154056277705866,
    2.307336026284553,
    2.2563025977418114,
    2.4763794643125676,
    0.8547398247805058,
    2.1313020312460447,
    2.336121512971758,
    2.23664834267134,
    2.464601598397028,
    0.8361807514190446,
    2.1578083747927317,
    2.2586104068282795,
    2.1713562643320676,
    2.40220204737477,
    0.8145300821626343,
    2.1452278400858233,
    2.221263250527697,
    2.12744798068003,
    2.3614473633276827,
    0.7951874959290219,
    2.1619969033795643,
    2.237592856985533,
    2.072096249415106,
    2.282417924961048,
    0.7978063434685232,
    2.1939315076479273,
    2.2354569933991963,
    2.0600331979516753,
    2.268091732795813,
    0.7995558622005937,
    2.228267529683302,
    2.1773990280777906,
    2.0446370200416126,
    2.274836335748399,
    0.8011928091496275,
    2.2736082190033478,
    2.0883950413630976,
    2.0530436422109783,
    2.3420003445625843,
    0.8124911064858109,
    2.388072083734988,
    2.079527653222634,
    2.078107799532077,
    2.2694573664951543,
    0.8088556166960613,
    2.400099868099707,
    2.042318346545733,
    2.0284421607258016,
    2.1579779838877564,
    0.7888920996396888,
    2.338147445993962,
    1.968939360646042,
    1.9740492319465799,
    2.12682722102744,
    0.7883243977009432,
    2.3866996471720983,
    1.9879560400069842,
    1.9876326269266313,
    2.0938785849170842,
    0.7899666452529516,
    2.4088003994045466,
    2.040136238980132,
    1.9961149681924426,
    2.018870754652881,
    0.7981921188631644,
    2.4151041537470457,
    2.01754837564947,
    2.0069508462578685,
    1.9541812346586722,
    0.8004308272728828,
    2.437383806512161,
    1.9735733921151546,
    1.9773511830582142,
    1.9100942129773948,
    0.7810033019318176,
    2.4373031158922873,
    1.8915395374917303,
    1.915972925045989,
    1.8371993488956802,
    0.7601846704865436,
    2.447545290467172,
    1.7819950485180571,
    1.8579158270633578,
    1.7053434012957598,
    0.7423419874275743,
    2.454630736514685,
    1.6711008903684148,
    1.727322869380483
  ],
  "weights": [
    0.07279678151517903,
    -0.1062354735244822,
    -0.14712625695461615,
    -0.059057385694007584,
    0.02662826291704238,
    -0.005751307812198853,
    0.09376709615321699,
    -0.11501863297673907,
    0.036552824678440385,
    0.05062124269895575,
    0.10932819513792626,
    0.1314281483452691,
    0.0131233440689412,
    0.11409001010659711,
    0.19953445260261926,
    -0.047881294675647335,
    0.11811980954441936,
    0.005168746131264441,
    0.0776591779824557,
    0.19205198392169093,
    -0.08408935571731596,
    0.0607764877382934,
    -0.06888635787363491,
    -0.01741617070318903,
    0.08470678589959296,
    -0.050823951371647566,
    0.021395310628909706,
    0.0016752457347982558,
    0.010948913635358272,
    0.11716656789647868,
    -0.14887593445895808,
    -0.0008214628969594363,
    -0.008086832149603112,
    -0.0522152980130925,
    0.019360261164932318,
    -0.1296417185784517,
    -0.012739776105465268,
    0.007139823291823678,
    -0.10302450676270396,
    -0.08373721732962681,
    -0.122800725368186,
    -0.015238106429091014,
    0.048088880196262764,
    -0.048851754928368386,
    -0.14355945314335997,
    -0.09870100577811489,
    -0.021677682208250747,
    0.11337295842388631,
    0.11573708057223302,
    -0.16412666022932587,
    -0.04203626477583322,
    -0.02241231166177318,
    0.1267824858591781,
    0.20935676996277855,
    -0.09260738556304154,
    -0.05887591829717649,
    -0.02175856021195648,
    0.018934695710244653,
    0.07705944601401929,
    -0.09598443714589233,
    0.01045306733829808,
    -0.0066079236617641165,
    -0.07110381381703426,
    -0.030741022871757125,
    -0.10919538799391011,
    0.08065729007535832,
    0.002806057391049525,
    -0.09059223811136644,
    -0.07722146135465925,
    -0.09923336432583969,
    0.08973461662878919,
    0.007017898643981707,
    -0.0706297078173217,
    -0.051714574629715786,
    -0.09987193302465966,
    0.06620636133730573,
    -0.0030553793493920105,
    -0.04113092450992513,
    -0.006678492375862002,
    -0.09783196296006978,
    0.059730338771990535,
    0.0011229573064615367,
    -0.0066849087428480355,
    0.05485655727447769,
    -0.07260064568695583,
    0.05030795548017338,
    -0.006977246224402787,
    -0.017128629980957866,
    0.07098513447140113,
    -0.03034729588867953,
    0.0311679928082106,
    -0.024301018481377164,
    -0.03918015388516,
    0.021012707179159408,
    0.020754946550913245,
    0.0023852914265737254,
    -0.041624119964611905,
    -0.028695569161531695,
    0.009396542534569858,
    0.04500547964842783,
    -0.02461524214270719,
    -0.054691563053437274,
    -0.00609278364814098,
    0.051040991952109004,
    0.0028120775420391007,
    -0.016573504551637697,
    -0.0577291757283131,
    0.02075979280077091,
    0.08434416288477081,
    -0.038374050369355525,
    -0.00829288933390343,
    -0.06135267790566006,
    0.008556972532980624,
    0.09643643668512233,
    -0.019253434457843246,
    0.004189040062861185,
    -0.09428187929538703,
    -0.001707366077772234,
    0.06656443321572067,
    -0.012008598760394004,
    0.006025250236826915,
    -0.09417436270080033,
    -0.02013811748109509,
    0.015671034363314244,
    -0.006676525842787339,
    0.026720385735794477,
    -0.08107789215990827,
    -0.06927468508927202,
    -0.07397882341396349,
    -0.04107979362083057,
    0.1008687074391454,
    -0.06564239745163422,
    -0.07280525207718376,
    -0.045666910342635064,
    -0.0580552846041802,
    0.13400764387513267,
    -0.04043939373111382,
    -0.025056631036500143,
    0.0525885656099454,
    -0.07306963215506684,
    0.10716073967439545,
    -0.02734609086795121,
    0.035777544100207254,
    0.15846042651737366,
    -0.0906342724910016,
    0.06719326012165928,
    -0.03575972736570886,
    0.07035755230270037,
    0.2206480536920972,
    -0.059435401894070435,
    0.032812616147780325,
    -0.05072290216298234,
    0.04873433985913559,
    0.20372205302381083,
    -0.024948869113695947,
    0.04795466853807984,
    -0.07422622625259384,
    -0.003639319126870452,
    0.1068816551158454,
    -0.015332109305970055,
    0.07895689008652586,
    -0.10011799373245274,
    -0.010280698148959985,
    0.1006395915514426,
    0.01393637672248258,
    0.06157037135904867,
    -0.11737860392369275,
    -0.005052164715545417,
    0.10889328043256347,
    0.05114413820274835,
    0.035816201752864214,
    -0.11441686247369452,
    -0.008110989972886201,
    0.08090986530775714,
    0.046627582979081136,
    0.01322298055505731,
    -0.11156162263490148,
    0.0006884221659659409,
    0.07805023358473298,
    0.06088984682056797,
    -0.02066344508988198,
    -0.11086559878765846,
    -0.032458601110313845,
    0.02380768882778487,
    0.04274298572813691,
    -0.012202664063327769,
    -0.11040895253068807,
    -0.012478804150306489,
    0.055366620156178735,
    0.041742253714647244,
    -0.026653696981334817,
    -0.10549069226719673,
    -0.02061915166736784,
    0.03800929161942544,
    0.020133467997033156,
    -0.02138980024150783,
    -0.09556817723491079,
    -0.024724729278543547,
    0.03705710709970776,
    -0.02787546178191446,
    -0.004907137722578614,
    -0.07720398752274785,
    -0.019198922629710027,
    0.04132933048974376,
    -0.02524112059305047,
    -0.009050239466656326
  ],
  "bias": -2.615155000947761,
  "training": {
    "generatedAt": "2026-04-23T21:58:03.775Z",
    "positives": 28,
    "negatives": 1082,
    "preparedManifest": "data/stage1b_prepared/manifest.jsonl",
    "thresholdSelection": "cross_validation_worst_fold_recall",
    "cvRecommendedThreshold": 0.8,
    "pooledCvThreshold": 0.8,
    "cv": {
      "threshold": 0.8,
      "tp": 28,
      "fp": 0,
      "tn": 1082,
      "fn": 0,
      "precision": 1,
      "recall": 1,
      "specificity": 1,
      "f1": 1,
      "folds": [
        {
          "threshold": 0.8,
          "tp": 6,
          "fp": 0,
          "tn": 216,
          "fn": 0,
          "precision": 1,
          "recall": 1,
          "specificity": 1,
          "f1": 1
        },
        {
          "threshold": 0.8,
          "tp": 6,
          "fp": 0,
          "tn": 216,
          "fn": 0,
          "precision": 1,
          "recall": 1,
          "specificity": 1,
          "f1": 1
        },
        {
          "threshold": 0.8,
          "tp": 6,
          "fp": 0,
          "tn": 216,
          "fn": 0,
          "precision": 1,
          "recall": 1,
          "specificity": 1,
          "f1": 1
        },
        {
          "threshold": 0.8,
          "tp": 5,
          "fp": 0,
          "tn": 217,
          "fn": 0,
          "precision": 1,
          "recall": 1,
          "specificity": 1,
          "f1": 1
        },
        {
          "threshold": 0.8,
          "tp": 5,
          "fp": 0,
          "tn": 217,
          "fn": 0,
          "precision": 1,
          "recall": 1,
          "specificity": 1,
          "f1": 1
        }
      ],
      "worstRecall": 1,
      "worstSpecificity": 1
    },
    "pooledCv": {
      "threshold": 0.8,
      "tp": 28,
      "fp": 0,
      "tn": 1082,
      "fn": 0,
      "precision": 1,
      "recall": 1,
      "specificity": 1,
      "f1": 1
    },
    "oofScoreSeparation": {
      "positives": {
        "count": 28,
        "min": 0.8006804211169074,
        "p05": 0.8782104735286358,
        "p50": 0.957140299300659,
        "p95": 0.9874188695798791,
        "max": 0.9953417838896743,
        "mean": 0.944747066059241
      },
      "negatives": {
        "count": 1082,
        "min": 0.00023020924893634446,
        "p05": 0.00792521206902996,
        "p50": 0.06342361115882006,
        "p95": 0.3005440469422517,
        "max": 0.7249820598941072,
        "mean": 0.09352056717504743
      },
      "minPositiveP": 0.8006804211169074,
      "maxNegativeP": 0.7249820598941072,
      "separationMargin": 0.07569836122280016
    },
    "trainAtCvThreshold": {
      "threshold": 0.8,
      "tp": 28,
      "fp": 0,
      "tn": 1082,
      "fn": 0,
      "precision": 1,
      "recall": 1,
      "specificity": 1,
      "f1": 1
    },
    "trainScoreSeparation": {
      "positives": {
        "count": 28,
        "min": 0.8522276931485615,
        "p05": 0.902467809067636,
        "p50": 0.9607388324543573,
        "p95": 0.9885826801461304,
        "max": 0.9952056363587043,
        "mean": 0.9520187141706062
      },
      "negatives": {
        "count": 1082,
        "min": 0.00024951620444685726,
        "p05": 0.008040052272492557,
        "p50": 0.06278365466851718,
        "p95": 0.29205269147632656,
        "max": 0.69623348222679,
        "mean": 0.0912709753487486
      },
      "minPositiveP": 0.8522276931485615,
      "maxNegativeP": 0.69623348222679,
      "separationMargin": 0.15599421092177146
    },
    "trainOnlyMetrics": {
      "threshold": 0.85,
      "tp": 28,
      "fp": 0,
      "tn": 1082,
      "fn": 0,
      "precision": 1,
      "recall": 1,
      "specificity": 1,
      "f1": 1
    }
  }
}
